/*!
 * The following copyright notice may not be removed under any circumstances.
 * 
 * Copyright:
 * Copyright 1990-1998 Bitstream Inc.  All rights reserved.
 */
Cufon.registerFont({"w":1139,"face":{"font-family":"BellGothic Blk BT","font-weight":400,"font-stretch":"semi-condensed","units-per-em":"2048","panose-1":"2 11 7 6 2 2 2 4 2 4","ascent":"1556","descent":"-492","x-height":"25","bbox":"-47 -1683 1960.38 483","underline-thickness":"188","underline-position":"-99","unicode-range":"U+0020-U+007E"},"glyphs":{" ":{"w":569},"!":{"d":"506,-545r-215,0r-60,-952r334,0xm242,0r0,-324r313,0r0,324r-313,0","w":797},"\"":{"d":"406,-1438r192,0r0,559r-192,0r0,-559xm80,-1438r192,0r0,559r-192,0r0,-559","w":678},"#":{"d":"709,-848r-88,244r251,0r86,-244r-249,0xm709,-1464r221,0r-146,415r242,0r148,-415r221,0r-148,415r283,0r-74,201r-280,0r-84,242r290,0r-71,200r-291,0r-148,416r-221,0r148,-416r-244,0r-149,416r-220,0r146,-416r-287,0r76,-200r282,0r86,-242r-299,0r74,-201r297,0","w":1575},"$":{"d":"1063,-453v0,260,-183,419,-432,443r0,268r-131,0r0,-270v-192,-7,-323,-83,-445,-187r144,-256v72,100,167,169,301,199r0,-422v-139,-45,-244,-104,-314,-179v-70,-75,-106,-163,-106,-265v-1,-233,187,-389,420,-398r0,-163r131,0r0,161v172,15,300,72,401,166r-160,226v-61,-80,-127,-132,-241,-148r0,340v142,45,250,108,323,190v73,82,109,180,109,295xm499,-1290v-95,0,-171,41,-171,127v0,102,75,129,172,168xm631,-248v103,-10,176,-74,176,-180v0,-106,-82,-153,-176,-193r0,373"},"%":{"d":"360,39r887,-1575r158,0r-887,1575r-158,0xm438,-1346v-108,0,-200,93,-200,201v0,108,92,199,200,199v109,0,201,-91,201,-199v0,-110,-91,-201,-201,-201xm438,-756v-209,0,-391,-180,-391,-389v0,-212,179,-391,391,-391v212,0,389,179,389,391v0,212,-177,389,-389,389xm1329,-553v-108,0,-201,93,-201,201v0,108,93,200,201,200v108,0,201,-92,201,-200v0,-111,-90,-201,-201,-201xm1329,39v-209,0,-391,-182,-391,-391v0,-212,179,-389,391,-389v212,0,389,177,389,389v0,212,-177,391,-389,391","w":1745},"&":{"d":"1466,31v-187,11,-323,-32,-417,-125v-115,85,-236,134,-420,137v-298,4,-512,-192,-508,-485v3,-250,136,-399,325,-488v-44,-90,-84,-169,-86,-274v-4,-208,178,-334,400,-334v204,0,370,125,364,321v-6,191,-141,299,-297,377v71,115,150,222,236,322v57,-88,100,-184,131,-295r272,90v-49,156,-114,288,-202,401v52,37,116,53,202,56r0,297xm743,-1343v-113,0,-154,104,-107,203v15,32,35,71,64,116v92,-38,173,-95,177,-201v3,-76,-55,-118,-134,-118xm418,-479v-5,171,171,308,350,239v31,-12,61,-30,88,-53v-115,-131,-206,-265,-299,-428v-77,64,-135,126,-139,242","w":1593},"'":{"d":"80,-1438r192,0r0,559r-192,0r0,-559","w":352},"(":{"d":"88,-612v0,-385,131,-699,320,-924r305,0v-196,226,-334,535,-334,924v0,393,130,718,334,921r-314,0v-191,-209,-311,-533,-311,-921","w":711},")":{"d":"623,-614v0,384,-131,699,-320,923r-301,0v192,-227,330,-537,330,-923v0,-391,-130,-717,-330,-922r309,0v192,208,312,533,312,922","w":711},"*":{"d":"471,-1153r-78,-383r236,0r-78,383r20,14r342,-190r72,223r-389,43r-8,27r289,264r-191,137r-162,-356r-24,0r-164,356r-191,-139r289,-264r-6,-23r-389,-47r74,-221r340,192","w":1024},"+":{"d":"752,-1221r202,0r0,510r498,0r0,199r-498,0r0,512r-202,0r0,-512r-498,0r0,-199r498,0r0,-510","w":1706},",":{"d":"176,0r0,-317r322,0r0,358r-179,332r-143,0r143,-373r-143,0","w":682},"-":{"d":"76,-418r0,-256r530,0r0,256r-530,0","w":682,"k":{"Y":167,"X":73,"W":36,"V":73,"T":120,"O":-38,"J":-75,"G":-38,"C":-38}},".":{"d":"176,0r0,-313r322,0r0,313r-322,0","w":682},"\/":{"d":"489,-1536r127,0r-536,1726r-127,0","w":569},"0":{"d":"439,-1190v-44,108,-39,389,-40,574v0,143,16,245,40,309v47,124,209,124,259,1v43,-107,38,-391,39,-575v0,-144,-15,-246,-39,-309v-46,-124,-209,-122,-259,0xm206,-158v-156,-232,-157,-951,0,-1182v86,-127,202,-196,363,-196v162,0,279,69,365,196v157,232,156,951,0,1182v-87,128,-203,197,-365,197v-161,0,-277,-69,-363,-197"},"1":{"d":"162,0r0,-246r284,0r0,-1005r-305,0r0,-246r609,0r0,1251r284,0r0,246r-872,0"},"2":{"d":"582,-1532v332,-12,566,326,422,646v-57,126,-194,232,-295,327v-139,131,-232,224,-273,285r621,0r0,274r-973,0v10,-354,190,-511,400,-713v108,-104,179,-181,210,-235v23,-41,37,-86,37,-146v2,-108,-68,-198,-172,-194v-144,6,-208,130,-248,270r-239,-160v96,-209,239,-344,510,-354"},"3":{"d":"858,-150v-180,147,-481,224,-801,173r0,-273v173,50,410,13,533,-60v96,-57,145,-125,145,-208v0,-103,-74,-184,-176,-180v-67,2,-121,26,-188,51r-92,-207v133,-59,230,-115,293,-168v63,-53,94,-105,94,-158v0,-76,-62,-126,-142,-123v-136,6,-237,101,-305,201r-158,-209v143,-123,292,-219,514,-225v212,-6,383,115,383,313v0,172,-104,257,-237,330v194,33,321,149,321,363v0,172,-80,295,-184,380"},"4":{"d":"639,18r0,-391r-567,0r0,-321r467,-803r407,0r0,868r119,0r0,256r-119,0r0,391r-307,0xm639,-629r0,-631r-367,631r367,0"},"5":{"d":"1067,-524v0,415,-385,619,-838,550v-52,-8,-104,-20,-155,-36r55,-258v89,28,171,49,270,51v197,5,361,-116,361,-301v0,-141,-92,-248,-230,-246v-86,2,-145,37,-196,84r-207,0r82,-817r770,0r0,260r-555,0r-33,289v60,-32,125,-50,211,-51v272,-5,465,202,465,475"},"6":{"d":"88,-549v7,-379,151,-680,330,-948r385,0v-167,167,-292,375,-397,625v74,-37,152,-64,249,-66v263,-2,422,211,422,485v0,291,-199,494,-489,494v-324,0,-507,-248,-500,-590xm401,-453v0,141,61,258,187,258v125,0,184,-118,184,-258v0,-139,-59,-256,-184,-256v-125,0,-187,117,-187,256"},"7":{"d":"1063,-1389v-211,435,-375,894,-483,1407r-338,0v119,-434,289,-846,485,-1255r-616,0r0,-260r952,0r0,108"},"8":{"d":"418,-1096v0,108,52,197,151,197v99,0,152,-89,152,-197v0,-109,-52,-198,-152,-198v-101,0,-151,87,-151,198xm385,-436v0,133,62,243,182,243v121,0,185,-110,185,-243v0,-134,-63,-244,-185,-244v-122,0,-182,110,-182,244xm76,-408v1,-195,100,-324,246,-385v-120,-63,-201,-169,-203,-337v-4,-237,205,-404,450,-404v247,0,452,166,449,404v-2,167,-83,273,-201,337v145,61,242,190,244,385v2,275,-209,447,-492,447v-283,0,-495,-173,-493,-447"},"9":{"d":"737,-1042v0,-140,-60,-256,-186,-256v-125,0,-186,117,-186,256v0,140,60,258,186,258v125,0,186,-119,186,-258xm1049,-946v-7,386,-157,701,-342,964r-390,0v176,-170,306,-384,416,-641v-74,38,-152,64,-250,66v-262,2,-422,-211,-422,-485v0,-292,200,-494,490,-494v323,0,504,248,498,590"},":":{"d":"176,0r0,-313r322,0r0,313r-322,0xm176,-639r0,-313r322,0r0,313r-322,0","w":682},";":{"d":"176,-639r0,-313r322,0r0,313r-322,0xm176,0r0,-317r322,0r0,358r-179,332r-143,0r143,-373r-143,0","w":682},"<":{"d":"1442,-1194r0,219r-893,365r893,364r0,219r-1178,-485r0,-199","w":1706},"=":{"d":"254,-496r1198,0r0,199r-1198,0r0,-199xm254,-926r1198,0r0,199r-1198,0r0,-199","w":1706},">":{"d":"264,-1194r1178,483r0,199r-1178,485r0,-219r895,-364r-895,-365r0,-219","w":1706},"?":{"d":"475,-1536v249,-5,453,146,388,400v-20,79,-43,117,-117,188v-113,108,-186,195,-189,403r-252,0v-14,-220,69,-360,174,-489v64,-79,94,-139,94,-178v1,-59,-44,-107,-104,-103v-113,7,-127,65,-184,166r-246,-100v79,-175,203,-283,436,-287xm274,0r0,-332r314,0r0,332r-314,0","w":920},"@":{"d":"1382,-106v-131,3,-210,-47,-215,-166v-66,100,-147,163,-297,163v-215,0,-323,-121,-323,-340v0,-295,203,-567,483,-563v117,1,190,52,236,131r53,-98r178,0r-152,621v-20,96,104,107,175,68v154,-85,252,-251,254,-478v3,-336,-306,-554,-664,-549v-374,5,-612,181,-744,420v-63,113,-92,239,-92,375v-3,421,323,680,760,674v244,-3,448,-81,604,-191r82,117v-181,136,-395,229,-682,231v-430,4,-729,-190,-871,-471v-96,-190,-100,-461,-25,-676v87,-249,283,-447,511,-550v221,-100,528,-123,781,-48v207,61,375,199,460,368v88,176,89,429,0,608v-91,183,-245,349,-512,354xm760,-444v0,115,49,188,158,188v126,0,217,-112,245,-227r54,-217v-15,-99,-69,-166,-175,-166v-170,0,-282,226,-282,422","w":2048},"A":{"d":"520,-555r322,0r-160,-676xm985,0r-80,-299r-450,0r-78,299r-322,0r430,-1497r392,0r430,1497r-322,0","w":1364,"k":{"Y":120,"T":112,"A":-38,";":-38,":":-38,".":-38,",":-38}},"B":{"d":"862,-1081v0,-132,-64,-185,-200,-185r-132,0r0,371r132,0v131,0,200,-58,200,-186xm895,-453v0,-145,-73,-209,-221,-209r-144,0r0,418r144,0v148,0,221,-63,221,-209xm1229,-430v0,312,-192,430,-524,430r-506,0r0,-1497r495,0v312,1,504,95,504,381v0,180,-75,267,-209,328v154,48,240,162,240,358","w":1364,"k":{"Y":36,"W":36,"V":36,"-":-38}},"C":{"d":"1184,-414v3,275,-217,457,-502,453v-255,-4,-417,-121,-478,-319v-35,-116,-30,-413,-30,-601v0,-274,15,-389,133,-516v82,-88,210,-136,375,-139v264,-5,504,172,502,418r0,90r-329,0v-6,-139,-42,-219,-173,-219v-175,0,-172,86,-172,309v0,190,-24,522,37,629v22,39,70,57,135,57v147,-1,173,-100,172,-262r330,0r0,100","w":1364},"D":{"d":"874,-907v-2,-220,-81,-299,-301,-301r-77,0r0,919r77,0v218,-2,301,-84,301,-303r0,-315xm164,-1497r432,0v321,-7,471,49,564,253v35,76,50,165,50,265r0,459v-5,273,-112,460,-349,502v-176,30,-480,14,-697,18r0,-1497","w":1366,"k":{"Y":36,"-":-38}},"E":{"d":"190,0r0,-1497r1010,0r0,289r-678,0r0,268r463,0r0,289r-463,0r0,362r721,0r0,289r-1053,0","w":1364},"F":{"d":"162,0r0,-1497r981,0r0,289r-649,0r0,268r440,0r0,289r-440,0r0,651r-332,0","w":1151,"k":{"u":45,"r":36,"o":120,"e":120,"a":139,"T":-114,"A":83,";":36,":":36,".":311,",":311}},"G":{"d":"995,-102v-81,88,-168,141,-323,141v-248,0,-409,-126,-468,-319v-35,-114,-30,-414,-30,-601v0,-274,15,-388,133,-516v81,-88,210,-138,375,-139v300,-2,496,175,508,461r-336,0v-7,-107,-63,-172,-172,-172v-173,0,-172,90,-172,309v0,189,-24,527,38,631v23,38,69,55,134,55v152,2,178,-120,172,-285r-174,0r0,-256r510,0r0,811r-148,0","w":1364,"k":{"Y":55,"T":36}},"H":{"d":"190,0r0,-1497r332,0r0,559r434,0r0,-559r332,0r0,1497r-332,0r0,-647r-434,0r0,647r-332,0","w":1479},"I":{"d":"61,0r0,-141r170,0r0,-1225r-170,0r0,-131r674,0r0,131r-172,0r0,1225r172,0r0,141r-674,0","w":797},"J":{"d":"444,37v-255,1,-404,-132,-403,-383r0,-135r262,0r0,51v4,125,5,192,107,192v103,0,106,-66,106,-192r0,-1067r332,0r0,1106v-1,290,-120,426,-404,428","w":1024},"K":{"d":"182,0r0,-1497r332,0r0,1497r-332,0xm532,-780r449,-717r354,0r-446,692r522,805r-391,0","w":1479,"k":{"y":55,"u":36,"o":36,"e":36,"Y":55,"W":36,"U":55,"T":36,"-":73}},"L":{"d":"164,0r0,-1497r332,0r0,1208r655,0r0,289r-987,0","w":1151,"k":{"y":73,"u":36,"o":36,"e":36,"a":-65,"Y":225,"W":139,"V":188,"U":73,"T":167,"O":73,"-":73}},"M":{"d":"1331,0r10,-1257r-319,1257r-223,0r-320,-1257r10,1257r-288,0r0,-1497r446,0r262,967r265,-967r446,0r0,1497r-289,0","w":1821},"N":{"d":"199,0r0,-1497r319,0r479,909r-6,-909r289,0r0,1497r-272,0r-527,-1012r6,1012r-288,0","w":1479},"O":{"d":"682,-252v171,0,172,-96,172,-309v0,-190,24,-519,-37,-628v-22,-40,-70,-58,-135,-58v-171,0,-172,96,-172,309v0,190,-24,519,37,628v22,40,70,58,135,58xm174,-616v1,-189,-6,-484,30,-600v61,-198,223,-320,478,-320v255,0,420,122,480,320v35,116,30,412,30,600v0,274,-15,389,-133,516v-82,88,-212,139,-377,139v-255,0,-419,-121,-478,-319v-20,-70,-30,-183,-30,-336","w":1366,"k":{"Y":55,"X":63,".":63,"-":-38,",":63}},"P":{"d":"901,-1026v0,-186,-84,-213,-287,-217r-92,0r0,432r92,0v202,-4,287,-32,287,-215xm190,-1497r377,0v331,-6,507,35,617,229v73,129,69,349,0,481v-106,203,-328,238,-662,230r0,557r-332,0r0,-1497","w":1280,"k":{"o":36,"e":36,"a":55,"A":92,".":434,"-":92,",":434}},"Q":{"d":"676,-1247v-175,0,-174,92,-174,309v0,190,-21,518,37,628v40,75,223,78,264,1v-28,-54,-65,-90,-141,-88r0,-287v109,-3,170,55,206,133r6,-4v-39,-95,-22,-254,-22,-383v0,-129,-13,-214,-38,-252v-25,-38,-71,-57,-138,-57xm987,-53v-116,97,-359,119,-529,57v-131,-48,-223,-150,-264,-284v-35,-114,-30,-414,-30,-601v0,-274,15,-389,133,-516v83,-89,211,-139,377,-139v255,0,417,122,478,320v36,115,30,412,30,600v0,136,-4,254,-31,340v39,51,74,82,156,79r0,336v-177,5,-267,-63,-320,-192","w":1366},"R":{"d":"905,-1047v0,-176,-88,-191,-291,-196r-92,0r0,393r92,0v204,-5,291,-20,291,-197xm1237,-1055v-1,213,-108,350,-274,406r327,649r-366,0r-291,-610r-111,0r0,610r-332,0r0,-1497r377,0v329,-5,506,27,617,215v38,64,53,140,53,227","w":1364,"k":{"u":-38,"o":55,"e":45,"a":45,"Y":36,"-":-38}},"S":{"d":"1143,-422v3,281,-225,466,-516,461v-265,-5,-430,-123,-541,-303r258,-182v76,119,136,199,291,206v103,5,190,-60,188,-157v-2,-140,-138,-179,-251,-225v-140,-57,-235,-105,-285,-144v-97,-75,-164,-181,-166,-336v-3,-272,211,-444,493,-440v237,4,392,110,490,270r-238,170v-66,-91,-138,-158,-270,-162v-92,-3,-160,44,-160,131v0,144,165,179,282,230v131,57,222,99,267,135v94,74,157,189,158,346","w":1251},"T":{"d":"408,0r0,-1208r-379,0r0,-289r1089,0r0,289r-379,0r0,1208r-331,0","w":1147,"k":{"y":178,"w":178,"u":149,"s":178,"r":139,"o":178,"e":178,"c":178,"a":178,"T":-47,"A":112,";":149,":":149,".":206,"-":120,",":206}},"U":{"d":"739,37v-358,0,-535,-167,-536,-522r0,-1012r332,0r0,936v5,214,19,309,204,309v186,0,205,-94,205,-309r0,-936r332,0r0,1012v-1,358,-176,522,-537,522","w":1479},"V":{"d":"856,0r-350,0r-459,-1497r332,0r303,1046r301,-1046r332,0","w":1364,"k":{"u":55,"o":92,"e":92,"a":92,";":36,":":36,".":188,"-":73,",":188}},"W":{"d":"1495,0r-287,0r-241,-1014r-242,1014r-287,0r-358,-1497r295,0r219,1003r235,-1003r275,0r235,1003r222,-1003r292,0","w":1933,"k":{"o":55,"e":55,"a":55,";":112,":":112,".":131,"-":36,",":131}},"X":{"d":"1307,0r-353,0r-272,-526r-272,526r-355,0r434,-786r-419,-711r356,0r256,465r256,-465r356,0r-420,711","w":1364,"k":{"e":36,"O":63,"C":36,"-":73}},"Y":{"d":"463,0r0,-598r-459,-899r352,0r273,559r272,-559r350,0r-456,899r0,598r-332,0","w":1255,"k":{"u":149,"o":167,"i":36,"e":167,"a":167,"O":55,"C":36,"A":120,";":120,":":120,".":301,"-":167,",":301}},"Z":{"d":"92,0r0,-270r649,-944r-604,0r0,-283r989,0r0,258r-628,954r628,0r0,285r-1034,0","w":1251,"k":{"-":73}},"[":{"d":"422,141r270,0r0,154r-602,0r0,-1792r602,0r0,151r-270,0r0,1487","w":711},"\\":{"d":"-47,-1536r127,0r536,1726r-127,0","w":569},"]":{"d":"291,-1346r-273,0r0,-151r605,0r0,1792r-605,0r0,-154r273,0r0,-1487","w":711},"^":{"d":"897,-1460r252,0r481,561r-235,0r-371,-371r-373,371r-235,0","w":2048},"_":{"d":"0,279r1024,0r0,204r-1024,0r0,-204","w":1024},"`":{"d":"207,-1595r287,0r192,370r-154,0","w":1024},"a":{"d":"960,10v-144,13,-245,-35,-294,-131v-89,84,-163,143,-306,146v-169,4,-276,-127,-276,-301v0,-122,45,-220,135,-294v90,-74,225,-122,406,-147r0,-86v-1,-71,-66,-113,-144,-110v-108,4,-174,50,-252,110r-133,-170v105,-86,226,-140,402,-141v262,-1,410,120,411,375r0,469v0,37,21,60,52,67xm473,-195v153,-2,159,-185,152,-356v-140,16,-264,89,-269,223v-3,74,47,134,117,133","w":1024},"b":{"d":"614,-866v-74,0,-127,41,-192,80r0,481v66,39,117,80,192,80v44,0,74,-17,90,-52v33,-41,33,-497,0,-537v-16,-35,-46,-52,-90,-52xm748,25v-175,0,-238,-90,-326,-218r0,193r-287,0r0,-1536r287,0r0,637v89,-129,152,-215,330,-215v101,0,171,35,209,106v38,71,57,225,57,463v0,238,-19,392,-58,463v-39,71,-109,107,-212,107"},"c":{"d":"545,-1114v227,0,371,117,362,346r-235,0v1,-71,-41,-119,-111,-117v-110,3,-129,79,-129,207r0,275v2,126,21,195,131,198v84,2,127,-67,115,-157r250,0v10,266,-120,388,-381,387v-282,-1,-403,-142,-404,-428r0,-293v-1,-266,139,-418,402,-418","w":1024},"d":{"d":"385,-1114v179,0,244,86,332,215r0,-637r284,0r0,1536r-284,0r0,-193v-88,128,-153,218,-328,218v-102,0,-165,-40,-211,-105v-69,-99,-69,-829,-1,-929v44,-65,107,-105,208,-105xm522,-225v73,0,131,-42,195,-80r0,-481v-68,-40,-119,-80,-195,-80v-43,0,-72,16,-88,50v-32,37,-32,504,0,541v16,33,45,50,88,50"},"e":{"d":"602,-195v100,-2,179,-34,262,-73r35,219v-108,44,-215,77,-348,78v-281,2,-431,-163,-430,-447r0,-258v-2,-273,128,-439,391,-440v236,-1,384,154,381,393r0,236r-506,0r0,94v0,128,84,200,215,198xm520,-926v-90,1,-133,78,-133,176r0,101r266,0v5,-141,-1,-280,-133,-277","w":1024,"k":{"x":36}},"f":{"d":"731,-1317v-105,0,-196,-3,-196,94r0,133r196,0r0,207r-196,0r0,883r-291,0r0,-883r-156,0r0,-207r156,0r0,-149v5,-237,115,-294,368,-297r119,4r0,215","w":797,"k":{".":36,",":36}},"g":{"d":"464,-342v54,79,168,37,241,-4r0,-463v-66,-42,-188,-82,-241,-5v-27,40,-28,431,0,472xm406,-1114v172,0,237,84,323,207r0,-183r266,0r0,940v8,262,-56,386,-224,462v-121,55,-324,61,-443,4v-58,-27,-109,-70,-150,-128r180,-112v43,56,91,96,177,96v122,0,170,-76,170,-207r0,-188v-80,107,-139,178,-293,178v-100,0,-162,-38,-206,-101v-68,-98,-68,-768,-2,-867v43,-63,104,-101,202,-101"},"h":{"d":"633,-850v-82,0,-135,55,-191,109r0,741r-284,0r0,-1536r284,0r0,653v55,-80,111,-136,164,-175v110,-82,294,-68,361,32v40,59,47,120,47,231r0,795r-285,0r0,-680v-4,-117,0,-170,-96,-170"},"i":{"d":"141,-1290r0,-246r285,0r0,246r-285,0xm141,0r0,-1090r285,0r0,1090r-285,0","w":569},"j":{"d":"129,354r-119,-4r0,-241v166,11,207,-45,207,-226r0,-973r283,0r0,1078v-3,277,-94,362,-371,366xm217,-1290r0,-246r283,0r0,246r-283,0","w":682},"k":{"d":"162,0r0,-1536r284,0r0,1536r-284,0xm782,0r-299,-580r248,-510r307,0r-268,488r332,602r-320,0"},"l":{"d":"143,0r0,-1536r285,0r0,1536r-285,0","w":569},"m":{"d":"621,-850v-83,0,-137,55,-193,109r0,741r-283,0r0,-1090r283,0r0,207v55,-79,109,-138,164,-175v55,-37,114,-56,176,-56v132,0,188,83,219,203v92,-84,163,-138,209,-165v164,-97,375,2,375,189r0,887r-285,0r0,-680v-5,-119,2,-170,-94,-170v-82,0,-138,55,-193,109r0,741r-284,0r0,-680v-4,-118,1,-170,-94,-170","w":1706},"n":{"d":"621,-850v-83,0,-137,55,-193,109r0,741r-283,0r0,-1090r283,0r0,207v55,-79,109,-138,164,-175v55,-37,114,-56,176,-56v153,0,231,103,231,262r0,852r-284,0r0,-680v-4,-118,1,-170,-94,-170"},"o":{"d":"418,-830v-39,46,-39,525,0,570v30,75,183,77,214,2v39,-43,39,-530,0,-573v-31,-75,-184,-75,-214,1xm526,-1114v299,0,426,168,426,477r0,184v0,309,-127,478,-426,478v-299,0,-426,-169,-426,-478r0,-184v0,-309,127,-477,426,-477","w":1053,"k":{"x":55}},"p":{"d":"614,-866v-74,0,-127,41,-192,80r0,458v66,40,117,80,192,80v44,0,74,-17,90,-52v33,-43,33,-472,0,-514v-16,-35,-46,-52,-90,-52xm748,0v-175,0,-238,-87,-326,-215r0,571r-287,0r0,-1446r287,0r0,191v89,-129,152,-215,330,-215v101,0,164,39,209,106v70,104,69,803,-1,904v-45,65,-109,104,-212,104"},"q":{"d":"385,-1114v179,0,244,86,332,215r0,-191r284,0r0,1446r-284,0r0,-571v-87,128,-153,215,-328,215v-103,0,-166,-39,-211,-104v-69,-100,-69,-804,0,-905v45,-65,106,-105,207,-105xm522,-248v74,0,131,-41,195,-80r0,-458v-68,-40,-119,-80,-195,-80v-43,0,-72,16,-88,50v-32,40,-32,479,0,518v16,34,45,50,88,50"},"r":{"d":"733,-742v-138,8,-236,36,-311,103r0,639r-283,0r0,-1090r262,0r0,236v79,-138,165,-243,332,-262r0,374","w":797,"k":{"z":-38,"y":-38,"x":-38,"w":-38,"v":-38,"f":-38,".":188,"-":36,",":188}},"s":{"d":"790,-450v99,252,-98,485,-356,475v-158,-6,-268,-66,-368,-150r133,-199v63,69,124,125,225,131v59,3,117,-35,117,-88v14,-50,-145,-141,-215,-182v-98,-58,-162,-113,-194,-159v-32,-46,-48,-103,-48,-171v0,-248,267,-381,520,-295v53,18,111,43,172,78r-129,191v-54,-51,-116,-89,-207,-90v-60,-1,-101,20,-102,75v0,31,47,75,142,131r76,45v119,74,190,97,234,208","w":872},"t":{"d":"571,23v-277,-4,-372,-90,-372,-367r0,-539r-160,0r0,-207r160,0r0,-391r284,0r0,391r199,0r0,207r-199,0r0,434v-3,182,38,236,207,226r0,241v-40,5,-67,5,-119,5","w":797},"u":{"d":"518,-240v82,0,133,-56,191,-110r0,-740r284,0r0,1090r-284,0r0,-207v-55,80,-109,139,-163,176v-54,37,-113,56,-175,56v-140,2,-234,-99,-234,-240r0,-875r285,0r0,680v4,118,0,170,96,170"},"v":{"d":"377,0r-299,-1090r280,0r154,644r154,-644r280,0r-299,1090r-270,0","w":1024,"k":{".":131,",":131}},"w":{"d":"1126,0r-213,0r-174,-735r-174,735r-211,0r-297,-1090r254,0r158,654r162,-654r217,0r162,654r157,-654r254,0","w":1479,"k":{".":92,",":92}},"x":{"d":"973,0r-303,0r-158,-305r-158,305r-305,0r311,-549r-288,-541r301,0r139,289r139,-289r301,0r-288,541","w":1024,"k":{"o":55,"e":55}},"y":{"d":"485,287v-87,71,-270,98,-399,51r0,-241v79,24,172,17,223,-37v33,-35,59,-84,74,-150r-315,-1000r288,0r164,603r131,-603r289,0r-313,1139v-30,109,-79,186,-142,238","w":1024,"k":{".":139,",":139}},"z":{"d":"84,0r0,-205r424,-667r-402,0r0,-218r732,0r0,197r-422,666r422,0r0,227r-754,0","w":909},"{":{"d":"446,-1338v54,-136,240,-146,437,-139r0,209r-47,-2v-148,4,-172,43,-172,201r0,240v-2,200,-47,258,-207,299v160,41,207,97,207,297r0,241v4,158,23,195,172,199r47,-2r0,209v-196,7,-383,-2,-437,-138v-35,-88,-24,-313,-24,-452v0,-192,-74,-263,-264,-250r0,-209v188,13,264,-59,264,-252v0,-140,-11,-362,24,-451","w":1024},"|":{"d":"410,-1565r206,0r0,2048r-206,0r0,-2048","w":1024},"}":{"d":"190,-1270r-47,2r0,-209v204,-2,382,3,437,141v36,90,24,311,24,451v0,192,74,263,264,250r0,209v-193,-6,-264,56,-264,250v0,141,12,363,-24,453v-54,135,-242,144,-437,137r0,-209r47,2v147,-4,172,-43,172,-199r0,-239v2,-201,46,-259,207,-299v-160,-41,-207,-99,-207,-299r0,-242v-3,-156,-25,-195,-172,-199","w":1024},"~":{"d":"1155,-649v159,0,256,-71,375,-154r0,221v-146,108,-349,182,-563,107v-116,-41,-331,-105,-404,-100v-162,11,-262,72,-385,157r0,-221v116,-77,230,-137,387,-143v87,-4,243,39,350,78v103,37,183,55,240,55","w":1706},"\u00a0":{"w":569}}});
