/*!
 * The following copyright notice may not be removed under any circumstances.
 * 
 * Copyright:
 * Copyright 1990-1993 Bitstream Inc.  All rights reserved.
 */
Cufon.registerFont({"w":940,"face":{"font-family":"Zurich LtCn BT","font-weight":400,"font-stretch":"condensed","units-per-em":"2048","panose-1":"2 11 4 6 2 2 2 4 2 4","ascent":"1638","descent":"-410","x-height":"25","bbox":"-76 -1579 1926.64 483","underline-thickness":"86","underline-position":"-152","unicode-range":"U+0020-U+007E"},"glyphs":{" ":{"w":471},"!":{"d":"231,-348r-18,-1127r152,0r-27,1127r-107,0xm209,0r0,-166r153,0r0,166r-153,0","w":569},"\"":{"d":"451,-1434r0,553r-86,0r0,-553r86,0xm186,-1434r0,553r-86,0r0,-553r86,0","w":551},"#":{"d":"979,-866r-270,0r-99,282r269,0xm915,-1454r-174,498r271,0r176,-498r110,0r-174,498r322,0r-31,90r-323,0r-101,282r348,0r-30,90r-351,0r-174,494r-112,0r176,-494r-270,0r-179,494r-110,0r174,-494r-334,0r31,-90r336,0r100,-282r-360,0r28,-90r365,0r176,-498r110,0","w":1575},"$":{"d":"434,-1327v-122,4,-185,86,-182,217v3,155,68,206,182,272r0,-489xm516,-103v148,-14,203,-84,203,-247v0,-177,-70,-220,-203,-297r0,544xm516,-1427v226,6,319,137,303,378r-121,0v4,-171,-28,-269,-181,-278r-1,536v135,74,222,141,266,198v90,117,81,403,-20,501v-59,57,-137,90,-245,92r-1,184r-82,0r0,-184v-237,-4,-351,-146,-342,-399r125,0v-7,183,45,301,217,301r0,-600v-118,-67,-199,-128,-242,-186v-43,-58,-65,-130,-65,-216v-1,-202,112,-319,307,-327r0,-152r82,0r0,152"},"%":{"d":"332,25r610,-1475r94,0r-614,1475r-90,0xm477,-1077v0,-151,-32,-285,-155,-285v-128,0,-155,121,-156,275v0,97,12,170,38,217v26,47,65,71,118,71v125,0,154,-126,155,-278xm322,-1450v203,0,272,157,272,383v0,213,-77,356,-272,356v-205,0,-273,-145,-273,-370v0,-226,68,-369,273,-369xm1196,-342v0,-150,-33,-285,-156,-285v-127,0,-154,123,-155,275v0,97,13,170,39,218v26,48,64,71,116,71v125,0,156,-127,156,-279xm768,-346v0,-225,68,-369,272,-369v204,0,273,156,273,383v0,213,-77,357,-273,357v-204,0,-272,-146,-272,-371","w":1362},"&":{"d":"240,-1094v0,177,99,284,274,283r127,0r0,-227r133,0r0,227r166,0r0,109r-166,0r0,702r-194,0v-176,-2,-239,3,-332,-45v-116,-60,-162,-179,-162,-361v0,-207,73,-293,231,-352v-141,-31,-217,-162,-217,-340v0,-283,213,-398,520,-377r1,115v-243,-4,-381,38,-381,266xm539,-702v-204,0,-315,89,-316,286v0,135,39,240,129,282v51,24,196,19,289,19r0,-587r-102,0","w":948},"'":{"d":"186,-1434r0,553r-86,0r0,-553r86,0","w":285},"(":{"d":"338,-633v0,337,54,627,133,918r-102,0v-100,-299,-174,-576,-174,-922v0,-316,72,-599,167,-860r99,0v-75,267,-123,545,-123,864","w":569},")":{"d":"391,-637v0,343,-74,627,-172,922r-104,0v80,-295,135,-580,135,-918v0,-317,-49,-598,-123,-864r96,0v97,262,168,541,168,860","w":569},"*":{"d":"471,-1120r-115,246r-98,-58r156,-221r-271,23r0,-113r271,22r-156,-221r98,-55r115,244r113,-244r98,55r-154,221r269,-22r0,113r-269,-23r154,221r-98,58"},"+":{"d":"893,-1221r0,570r559,0r0,82r-559,0r0,569r-80,0r0,-569r-559,0r0,-82r559,0r0,-570r80,0","w":1706},",":{"d":"104,207r82,-373r156,0r-123,373r-115,0","w":469},"-":{"d":"74,-457r0,-114r422,0r0,114r-422,0","w":569,"k":{"x":36,"s":-75,"q":-38,"o":-38,"g":-38,"e":-38,"d":-38,"c":-38,"Y":83,"W":45,"V":92,"T":112,"S":-38,"Q":-38,"O":-38,"J":-38,"G":-38,"C":-38}},".":{"d":"156,0r0,-166r157,0r0,166r-157,0","w":469},"\/":{"d":"27,190r-103,0r592,-1683r105,0","w":569},"0":{"d":"306,-1420v88,-42,241,-42,329,0v107,51,159,147,187,290v26,133,25,704,0,836v-38,198,-131,321,-351,321v-221,0,-315,-123,-353,-321v-25,-132,-26,-706,0,-838v28,-144,80,-237,188,-288xm661,-206v66,-125,65,-890,0,-1014v-42,-80,-100,-126,-192,-126v-92,0,-150,46,-192,126v-66,125,-66,890,0,1014v42,80,100,124,192,124v92,0,150,-44,192,-124"},"1":{"d":"207,-1202v100,-59,183,-134,256,-225r115,0r0,1427r-129,0r0,-1253v-62,78,-138,130,-242,196r0,-145"},"2":{"d":"483,-1452v217,0,346,102,346,313v0,188,-71,277,-174,430r-397,592r573,0r0,117r-722,0r0,-127r458,-686v66,-102,126,-198,131,-326v4,-124,-86,-201,-213,-200v-160,1,-238,98,-237,262r-133,0v-7,-242,131,-375,368,-375"},"3":{"d":"434,27v-230,1,-379,-142,-356,-383r129,0v-4,168,70,266,231,266v174,0,228,-107,230,-295v3,-238,-82,-313,-315,-299r-1,-113v223,-3,305,-61,305,-278v0,-180,-52,-266,-221,-268v-149,-1,-222,98,-213,258r-127,0v-9,-242,108,-367,342,-365v258,2,350,105,350,367v0,197,-64,301,-219,342v186,24,233,135,234,358v2,259,-118,409,-369,410"},"4":{"d":"575,0r0,-365r-501,0r0,-151r438,-911r195,0r0,956r159,0r0,106r-159,0r0,365r-132,0xm575,-469r0,-602r11,-276r-86,198r-330,680r405,0"},"5":{"d":"455,25v-243,0,-352,-119,-351,-365r134,0v-4,160,67,256,219,256v212,0,243,-151,243,-399v0,-196,-54,-313,-233,-316v-119,-2,-195,54,-221,148r-125,0r14,-776r641,0r0,110r-518,0r-14,508v52,-63,135,-95,250,-94v251,2,342,154,342,422v0,332,-77,506,-381,506"},"6":{"d":"477,-1341v-198,0,-228,138,-231,368r0,219v29,-85,136,-143,254,-141v258,5,338,163,338,444v0,299,-88,476,-363,476v-206,0,-327,-94,-354,-279v-32,-222,-39,-768,20,-977v39,-139,150,-214,326,-215v233,0,350,102,344,336r-125,0v1,-154,-60,-231,-209,-231xm240,-428v0,198,57,340,233,340v192,0,234,-141,234,-361v0,-209,-40,-333,-224,-333v-188,0,-243,142,-243,354"},"7":{"d":"256,0r449,-1305r-594,0r0,-122r716,0r0,161r-430,1266r-141,0"},"8":{"d":"98,-365v0,-205,57,-332,215,-368v-135,-52,-193,-141,-194,-324v0,-240,114,-368,350,-368v237,0,353,128,352,368v-1,183,-59,272,-194,324v159,34,215,163,215,368v0,257,-118,390,-371,390v-256,0,-373,-131,-373,-390xm231,-369v0,184,67,291,240,291v166,0,237,-113,236,-291v0,-192,-57,-311,-232,-311v-185,0,-243,111,-244,311xm471,-780v153,0,216,-108,215,-273v-1,-172,-55,-266,-217,-266v-162,0,-219,95,-219,266v0,170,61,273,221,273"},"9":{"d":"463,-80v198,0,228,-139,231,-369r0,-221v-28,86,-137,146,-254,144v-258,-5,-338,-165,-338,-445v0,-298,89,-475,363,-475v206,0,327,94,354,279v32,221,40,767,-20,974v-40,139,-150,217,-326,218v-232,0,-350,-103,-344,-336r125,0v-1,153,60,231,209,231xm700,-993v0,-199,-56,-340,-233,-340v-192,0,-234,138,-234,358v0,209,41,336,224,336v187,0,243,-143,243,-354"},":":{"d":"170,-862r0,-166r158,0r0,166r-158,0xm170,0r0,-166r158,0r0,166r-158,0","w":498},";":{"d":"170,-862r0,-166r158,0r0,166r-158,0xm80,209r90,-375r158,0r-129,375r-119,0","w":498},"<":{"d":"1442,-1034r-1045,424r1045,424r0,88r-1178,-482r0,-61r1178,-483r0,90","w":1706},"=":{"d":"1452,-469r0,82r-1198,0r0,-82r1198,0xm1452,-831r0,79r-1198,0r0,-79r1198,0","w":1706},">":{"d":"1442,-641r0,61r-1178,482r0,-88r1045,-424r-1045,-424r0,-90","w":1706},"?":{"d":"365,-1493v200,0,303,108,303,309v0,195,-74,329,-160,445v-64,87,-75,135,-74,274r0,117r-119,0r1,-250v-6,-92,69,-180,125,-273v58,-96,94,-193,94,-300v0,-132,-47,-212,-170,-213v-127,-1,-155,91,-150,229r-135,0v-16,-215,76,-338,285,-338xm291,0r0,-166r153,0r0,166r-153,0","w":758},"@":{"d":"1047,-997v135,1,218,65,256,170r61,-129r80,0r-152,618v-23,87,25,137,111,135v81,-2,147,-36,203,-76v126,-89,223,-282,223,-489v0,-381,-322,-606,-725,-606v-408,0,-669,215,-801,489v-54,112,-78,238,-78,375v-3,449,347,724,813,717v243,-3,465,-85,623,-193r29,45v-172,130,-375,218,-648,220v-417,4,-708,-182,-846,-453v-93,-182,-96,-449,-24,-655v84,-240,272,-432,492,-531v214,-97,508,-120,754,-46v200,60,357,188,443,350v91,172,83,410,3,586v-64,141,-177,256,-326,314v-147,57,-391,41,-348,-155v-56,102,-151,183,-291,184v-208,2,-313,-116,-313,-326v0,-280,197,-547,461,-544xm690,-446v0,146,76,246,217,245v163,-1,277,-123,312,-266r63,-254v-26,-120,-98,-202,-233,-203v-218,-1,-359,239,-359,478","w":2048},"A":{"d":"315,-508r500,0r-246,-831xm162,0r-135,0r473,-1475r149,0r463,1475r-145,0r-121,-393r-567,0","w":1141,"k":{"y":36,"w":36,"v":55,"Y":112,"W":36,"V":36,"T":139,";":-38,":":-38,".":-65,",":-65}},"B":{"d":"684,-768v171,36,243,149,244,358v0,224,-71,355,-252,394v-115,24,-376,14,-537,16r0,-1475r293,0v349,7,465,51,465,373v0,196,-58,296,-213,334xm762,-1104v0,-236,-70,-255,-330,-262r-164,0r0,551r156,0v239,-3,338,-62,338,-289xm786,-414v0,-244,-99,-293,-362,-297r-156,0r0,602r164,0v284,-6,354,-41,354,-305","w":1014,"k":{"-":-57}},"C":{"d":"530,-92v183,0,276,-138,265,-338r141,0v4,279,-139,458,-408,455v-232,-3,-358,-133,-397,-341v-23,-121,-18,-598,-8,-743v18,-267,144,-438,414,-438v283,0,388,131,387,420r-137,0v-4,-202,-57,-312,-246,-312v-107,0,-182,41,-225,124v-43,83,-64,235,-64,456v1,194,3,355,27,496v22,129,108,221,251,221","w":1028,"k":{";":-38,":":-38}},"D":{"d":"272,-113v178,-2,377,15,465,-71v38,-38,65,-93,83,-168v28,-118,28,-569,8,-716v-32,-233,-122,-301,-390,-298r-166,0r0,1253xm139,-1475v258,8,563,-35,695,101v52,53,90,123,115,216v43,161,43,683,-1,844v-61,224,-189,314,-479,314r-330,0r0,-1475","w":1096,"k":{"Y":36,"W":36,"V":36,"A":36,";":-38,":":-38,".":83,",":83}},"E":{"d":"801,0r-662,0r0,-1475r662,0r0,115r-529,0r0,545r498,0r0,108r-498,0r0,584r529,0r0,123","w":883,"k":{";":-38,":":-38,".":-38,",":-38}},"F":{"d":"139,0r0,-1475r619,0r0,115r-486,0r0,545r453,0r0,108r-453,0r0,707r-133,0","w":801,"k":{"u":36,"r":55,"a":36,"A":36,".":292,",":292}},"G":{"d":"434,-116v120,54,281,20,402,-19r0,-535r-291,0r0,-106r426,0r0,735v-186,50,-425,107,-611,31v-126,-51,-189,-147,-222,-304v-29,-139,-30,-706,2,-850v48,-215,170,-332,425,-333v278,0,422,114,416,389r-127,0v-1,-194,-86,-278,-281,-278v-193,0,-271,104,-301,283v-21,125,-21,609,0,733v23,132,65,210,162,254","w":1085,"k":{"Y":36,"T":36,";":-38,":":-38,".":55,"-":-47,",":55}},"H":{"d":"272,0r-133,0r0,-1475r133,0r0,660r570,0r0,-660r133,0r0,1475r-133,0r0,-702r-570,0r0,702","w":1114},"I":{"d":"141,0r0,-1475r133,0r0,1475r-133,0","w":418},"J":{"d":"410,25v-257,2,-359,-176,-342,-449r126,0v-11,195,39,339,218,338v86,0,145,-27,178,-80v33,-53,49,-166,49,-340r0,-969r129,0r0,969v4,272,-17,408,-174,494v-49,27,-111,37,-184,37","w":915,"k":{".":63,",":63}},"K":{"d":"166,0r0,-1475r131,0r0,668r541,-666r153,0r-559,687r559,786r-155,0r-539,-752r0,752r-131,0","w":1028,"k":{"y":73,"u":36,"o":36,"e":36,"a":36,"Y":73,"W":36,"O":73,"C":73,"A":36,";":-38,":":-38,".":-38,",":-38}},"L":{"d":"160,0r0,-1475r135,0r0,1360r491,0r0,115r-626,0","w":803,"k":{"y":73,"Y":120,"W":73,"V":112,"U":36,"T":112,"O":36,";":-38,":":-38,".":-38,"-":73,",":-38}},"M":{"d":"244,-1396r10,288r0,1108r-123,0r0,-1475r215,0r354,1059v27,83,56,201,80,305r78,-305r354,-1059r215,0r0,1475r-127,0r0,-1108r9,-282r-459,1390r-148,0","w":1559},"N":{"d":"250,-1380v14,90,20,188,20,295r0,1085r-131,0r0,-1475r207,0r623,1391v-17,-102,-25,-209,-25,-324r0,-1067r129,0r0,1475r-199,0","w":1214},"O":{"d":"139,-310v-29,-143,-30,-717,1,-856v48,-215,173,-331,425,-331v252,0,381,117,427,334v31,144,30,710,0,853v-46,217,-181,335,-427,335v-245,0,-382,-118,-426,-335xm319,-1254v-85,134,-85,899,0,1033v53,83,128,131,246,131v118,0,199,-43,245,-130v46,-87,69,-259,69,-517v0,-259,-23,-432,-69,-519v-46,-87,-127,-130,-245,-130v-118,0,-193,48,-246,132","w":1133,"k":{"Y":36,"X":36,"T":36,";":-38,":":-38,".":83,"-":-38,",":83}},"P":{"d":"877,-1081v0,300,-117,396,-424,399r-181,0r0,682r-133,0r0,-1475r348,0v281,2,390,113,390,394xm752,-1081v0,-219,-69,-288,-289,-291r-191,0r0,588r191,0v224,-3,289,-72,289,-297","w":915,"k":{"u":36,"s":36,"r":36,"o":45,"n":36,"e":45,"a":45,"A":92,".":376,"-":120,",":376}},"Q":{"d":"729,0v-96,6,-219,21,-307,-6v-134,-41,-221,-122,-268,-258v-45,-130,-50,-748,-15,-906v47,-213,172,-327,426,-327v253,0,378,113,426,325v40,176,27,782,-15,890v-33,85,-77,146,-148,177v45,-3,90,-5,138,-7v48,-2,97,-3,148,-3r0,115r-385,0xm250,-743v0,253,4,402,82,532v59,98,239,145,368,81v99,-50,138,-121,160,-260v12,-79,19,-197,19,-353v0,-257,-23,-429,-68,-513v-45,-84,-127,-126,-246,-126v-119,0,-202,42,-247,126v-45,84,-68,255,-68,513","w":1133,"k":{";":-38,":":-38,"-":-38}},"R":{"d":"883,-463v0,165,6,312,26,463r-143,0v-16,-124,-12,-417,-21,-521v-11,-132,-64,-190,-204,-190r-273,0r0,711r-129,0r0,-1475r293,0v349,7,465,51,465,373v0,196,-57,297,-213,334v161,34,199,103,199,305xm764,-1116v0,-211,-84,-246,-313,-250r-183,0r0,551r156,0v246,-3,340,-64,340,-301","w":1026,"k":{".":-38,",":-38}},"S":{"d":"506,25v-276,0,-413,-156,-393,-441r137,1v-17,203,68,327,264,327v160,0,270,-105,268,-264v0,-57,-19,-106,-48,-151v-54,-84,-407,-285,-496,-365v-68,-61,-113,-154,-113,-277v-1,-225,169,-354,403,-354v255,0,391,142,381,405r-135,0v3,-190,-71,-291,-254,-292v-150,-1,-261,88,-260,233v0,61,19,116,58,165v39,49,133,120,284,214v132,82,218,150,257,205v39,55,59,122,59,200v1,252,-157,394,-412,394","w":1028,"k":{";":-38,":":-38,".":36,"-":-65,",":36}},"T":{"d":"369,0r0,-1360r-359,0r0,-115r846,0r0,115r-360,0r0,1360r-127,0","w":868,"k":{"y":167,"w":167,"u":167,"s":159,"r":131,"o":167,"e":167,"c":167,"a":167,"O":36,"C":36,"A":139,";":131,":":131,".":188,"-":112,",":188}},"U":{"d":"569,25v-334,0,-432,-176,-432,-533r0,-967r133,0r0,967v-4,217,24,326,154,392v83,42,207,42,291,0v130,-65,153,-176,153,-392r0,-967r131,0r0,967v-3,361,-93,533,-430,533","w":1139,"k":{";":63,":":63,".":45,",":45}},"V":{"d":"416,0r-406,-1475r144,0r256,959v9,34,22,85,38,154r52,241v17,-76,49,-201,97,-374r271,-980r129,0r-415,1475r-166,0","w":1010,"k":{"u":73,"o":73,"e":73,"a":73,"A":63,";":102,":":102,".":188,"-":92,",":188}},"W":{"d":"395,0r-370,-1475r131,0r308,1261v8,37,14,75,19,114r43,-246r242,-1129r197,0r261,1150v20,83,35,158,44,225v12,-87,26,-155,47,-246r250,-1129r125,0r-349,1475r-167,0r-269,-1164v-23,-94,-37,-166,-43,-216r-45,244r-248,1136r-176,0","w":1688,"k":{"u":36,"r":55,"o":55,"e":55,"a":55,"A":36,";":83,":":83,".":102,"-":45,",":102}},"X":{"d":"10,0r396,-768r-365,-707r154,0r303,617r321,-617r142,0r-377,709r415,766r-155,0r-350,-672r-336,672r-148,0","w":1010,"k":{"O":36,"C":36,";":-38,":":-38,".":-38,",":-38}},"Y":{"d":"412,0r0,-602r-422,-873r153,0r338,734r344,-734r138,0r-418,873r0,602r-133,0","w":952,"k":{"u":131,"o":131,"e":131,"a":131,"O":36,"C":36,"A":112,";":139,":":139,".":272,"-":83,",":272}},"Z":{"d":"41,0r0,-127r496,-905v11,-24,148,-254,192,-328r-637,0r0,-115r760,0r0,146r-668,1210r668,0r0,119r-811,0","w":891,"k":{";":-38,":":-38,".":-38,"-":36,",":-38}},"[":{"d":"498,301r-289,0r0,-1776r289,0r0,86r-170,0r0,1604r170,0r0,86","w":569},"\\":{"d":"541,190r-592,-1683r102,0r594,1683r-104,0","w":569},"]":{"d":"72,301r0,-86r170,0r0,-1604r-170,0r0,-86r286,0r0,1776r-286,0","w":569},"^":{"d":"1081,-1458r541,557r-125,0r-473,-469r-475,469r-125,0r539,-557r118,0","w":2048},"_":{"d":"1024,403r0,80r-1024,0r0,-80r1024,0","w":1024},"`":{"d":"545,-1163r-269,-348r152,0r209,348r-92,0","w":1024},"a":{"d":"358,-90v188,0,266,-134,265,-336r-1,-115v-171,1,-288,20,-350,55v-62,35,-92,98,-92,189v0,122,62,207,178,207xm750,-188v0,64,5,127,12,188r-115,0r-12,-141v-69,87,-161,147,-301,149v-170,2,-276,-130,-275,-305v2,-287,255,-337,564,-338r0,-113v-1,-151,-63,-205,-215,-206v-123,-1,-186,55,-189,173r-125,1v2,-193,130,-274,336,-273v216,1,320,88,320,299r0,566","w":874},"b":{"d":"494,25v-128,0,-198,-57,-254,-144r-11,119r-118,0v7,-58,10,-115,10,-184r0,-1291r119,0r0,570v57,-84,130,-142,254,-142v116,0,196,44,252,124v99,141,98,679,-1,821v-57,81,-136,127,-251,127xm303,-180v71,122,274,127,344,5v65,-113,57,-579,1,-672v-37,-61,-91,-95,-175,-95v-81,0,-136,36,-174,104v-62,111,-67,536,4,658","w":915,"k":{"-":-38}},"c":{"d":"438,-78v145,-1,207,-82,212,-227r118,0v-7,212,-119,334,-334,334v-123,0,-208,-44,-266,-123v-104,-140,-100,-691,-2,-832v57,-81,139,-127,258,-127v220,0,334,107,344,318r-123,-1v-5,-135,-70,-221,-203,-222v-83,0,-137,34,-174,93v-62,97,-60,599,0,695v37,58,89,92,170,92","w":858},"d":{"d":"422,-1047v124,0,196,59,254,142r0,-570r119,0r1,1405v1,25,4,49,7,70r-119,0r-8,-119v-57,87,-125,144,-254,144v-116,0,-195,-46,-252,-127v-99,-143,-99,-680,0,-821v56,-80,135,-124,252,-124xm267,-847v-57,94,-70,563,1,672v38,59,91,93,168,93v80,0,135,-35,177,-98v78,-119,66,-547,4,-658v-38,-68,-94,-104,-175,-104v-83,0,-138,34,-175,95","w":915},"e":{"d":"459,-948v-190,1,-243,140,-238,350r465,0v5,-209,-36,-351,-227,-350xm453,-80v151,-1,225,-79,225,-231r133,0v-12,221,-121,335,-350,336v-137,0,-233,-40,-287,-120v-54,-80,-82,-229,-82,-448v0,-272,35,-404,208,-481v47,-21,102,-29,161,-29v232,0,352,155,350,396r0,163r-592,0v-7,231,21,416,234,414","w":905,"k":{"-":-38}},"f":{"d":"498,-1391v-167,0,-209,21,-205,203r0,160r207,0r0,104r-207,0r0,924r-125,0r0,-924r-166,0r0,-104r166,0v8,-154,-32,-353,68,-418v64,-42,142,-50,262,-51r0,106","w":502,"k":{".":36,",":36}},"g":{"d":"615,-222v68,-108,72,-514,-1,-628v-41,-63,-94,-98,-172,-98v-81,0,-136,32,-174,90v-66,100,-63,541,-2,640v37,59,90,93,170,93v83,0,139,-34,179,-97xm422,-1053v127,0,197,56,254,142r8,-133r119,0v-9,61,-7,99,-8,184r0,831v6,232,-31,323,-178,387v-125,55,-332,38,-413,-46v-51,-53,-82,-126,-85,-226r135,0v1,139,57,201,195,201v170,0,218,-89,219,-271r0,-178v-48,86,-120,137,-246,137v-116,0,-196,-44,-252,-123v-98,-138,-102,-644,2,-784v57,-77,136,-121,250,-121","w":915,"k":{".":36,",":36}},"h":{"d":"477,-946v-173,0,-235,151,-235,348r0,598r-123,0r0,-1475r123,0r0,568v56,-86,140,-145,270,-146v168,-2,266,115,266,287r0,766r-125,0r0,-717v-1,-145,-42,-229,-176,-229","w":895},"i":{"d":"113,-1317r0,-158r145,0r0,158r-145,0xm119,0r0,-1028r133,0r0,1028r-133,0","w":371},"j":{"d":"18,281v114,6,109,-50,109,-168r0,-1141r133,0r0,1141v-6,239,-27,273,-248,280r-39,0r0,-112r45,0xm268,-1475r0,158r-147,0r0,-158r147,0","w":379},"k":{"d":"121,0r0,-1475r123,0r0,881r358,-434r146,0r-367,444r389,584r-149,0r-377,-561r0,561r-123,0","w":784,"k":{"u":36,"o":36,"e":36,"a":36,"-":45}},"l":{"d":"121,0r0,-1475r127,0r0,1475r-127,0","w":371},"m":{"d":"119,-885v-1,-48,-5,-86,-10,-143r122,0r11,121v56,-86,140,-146,270,-146v134,0,216,68,254,172v49,-99,146,-170,283,-172v168,-1,268,116,268,287r0,766r-125,0r0,-717v-1,-145,-42,-229,-176,-229v-174,0,-236,151,-236,348r0,598r-127,0r0,-717v-1,-145,-42,-229,-176,-229v-173,0,-235,151,-235,348r0,598r-123,0r0,-885","w":1434},"n":{"d":"477,-946v-173,0,-235,151,-235,348r0,598r-123,0r0,-885v-1,-48,-5,-86,-10,-143r122,0r11,121v56,-86,140,-145,270,-146v168,-2,266,115,266,287r0,766r-123,0r0,-717v-1,-144,-44,-229,-178,-229","w":895},"o":{"d":"176,-98v-107,-137,-107,-698,-1,-834v60,-77,148,-121,278,-121v129,0,216,44,277,121v106,134,105,704,1,837v-60,76,-147,120,-276,120v-130,0,-218,-45,-279,-123xm453,-80v83,0,139,-33,179,-92v74,-108,62,-583,2,-679v-39,-62,-95,-97,-181,-97v-85,0,-142,35,-181,96v-67,103,-66,576,0,678v39,60,95,94,181,94","w":905,"k":{"-":-38}},"p":{"d":"648,-180v56,-94,69,-562,-1,-671v-38,-59,-90,-93,-168,-93v-79,0,-134,35,-176,98v-78,119,-66,547,-4,658v38,68,93,104,174,104v84,0,138,-34,175,-96xm121,-842v0,-65,-3,-129,-10,-186r118,0r11,121v56,-87,126,-144,254,-144v115,0,194,46,251,127v99,142,100,680,1,820v-56,79,-136,124,-252,124v-124,0,-197,-58,-254,-141r0,510r-119,0r0,-1231","w":915,"k":{"-":-38}},"q":{"d":"613,-848v-71,-120,-274,-127,-345,-5v-65,113,-58,577,-1,671v37,61,92,96,175,96v81,0,137,-37,175,-105v62,-111,68,-536,-4,-657xm422,-1053v129,0,197,57,254,144r8,-119r119,0v-9,61,-7,99,-8,184r0,1233r-119,0r0,-512v-58,83,-129,139,-254,139v-117,0,-196,-44,-252,-123v-99,-140,-99,-678,0,-819v57,-81,136,-127,252,-127","w":915},"r":{"d":"530,-946v-186,-10,-282,108,-282,289r0,657r-127,0r0,-895v-1,-51,-7,-96,-17,-147r129,0r13,147v61,-98,135,-162,284,-158r0,107","w":551,"k":{".":131,"-":36,",":131}},"s":{"d":"399,25v-212,0,-313,-111,-305,-330r129,0v-6,141,46,234,174,235v124,1,204,-70,201,-192v-3,-94,-58,-131,-133,-174v-147,-85,-347,-133,-346,-355v0,-171,115,-262,293,-262v199,0,289,95,284,297r-116,0v3,-133,-43,-192,-172,-192v-101,0,-168,49,-168,145v0,100,56,129,137,176v148,86,340,136,340,363v0,191,-122,289,-318,289","w":811,"k":{"-":-38}},"t":{"d":"434,-106v32,0,63,-6,90,-13r0,113v-43,6,-69,6,-133,6v-181,0,-203,-60,-203,-260r0,-670r-161,0r0,-98r161,0r0,-219r123,-60r0,279r213,0r0,98r-213,0r0,658v3,127,11,166,123,166","w":578},"u":{"d":"418,-84v174,0,235,-149,235,-346r0,-598r123,0r0,885v1,46,5,86,10,143r-124,0r-9,-121v-56,86,-140,145,-270,146v-169,2,-266,-114,-266,-287r0,-766r123,0r0,717v1,144,44,227,178,227","w":895},"v":{"d":"338,0r-313,-1028r141,0r211,747v14,52,26,106,33,162v9,-60,16,-90,36,-160r216,-749r120,0r-299,1028r-145,0","w":809,"k":{".":120,",":120}},"w":{"d":"313,0r-290,-1028r135,0r202,771r33,164v3,-36,18,-107,31,-161r184,-774r156,0r207,776r33,159v59,-317,154,-627,227,-935r131,0r-287,1028r-157,0r-193,-731v-16,-59,-26,-119,-39,-190r-39,190r-180,731r-154,0","w":1384,"k":{".":112,",":112}},"x":{"d":"162,0r-137,0r301,-555r-248,-473r137,0r181,363v7,17,11,29,14,34v62,-139,145,-265,215,-397r125,0r-265,469r301,559r-145,0r-203,-393r-33,-75r-34,74","w":811,"k":{"-":63}},"y":{"d":"231,389r121,-401r-327,-1016r127,0r264,856r235,-856r123,0r-418,1417r-125,0","w":801,"k":{".":102,",":102}},"z":{"d":"70,0r0,-109r419,-815r-401,0r0,-104r541,0r0,104r-420,815r420,0r0,109r-559,0","w":696},"{":{"d":"479,-1100v-2,-308,74,-380,369,-377r0,88v-211,-3,-266,42,-266,265r0,241v-3,222,-35,301,-195,353v160,52,195,129,195,352r0,241v-3,224,53,265,266,263r0,88r-43,0v-274,-7,-320,-85,-326,-375r0,-240v4,-223,-84,-297,-303,-284r0,-90v217,14,303,-62,303,-285r0,-240","w":1024},"|":{"d":"557,-1565r0,2048r-90,0r0,-2048r90,0","w":1024},"}":{"d":"219,-1477v274,7,320,87,326,377r0,240v-4,222,84,298,303,285r0,90v-217,-13,-303,61,-303,284r0,240v2,307,-74,378,-369,375r0,-88v211,3,266,-39,266,-263r0,-241v3,-222,37,-300,197,-352v-160,-52,-197,-131,-197,-353r0,-241v2,-223,-53,-267,-266,-265r0,-88r43,0","w":1024},"~":{"d":"1143,-580v163,-9,259,-73,387,-159r0,92v-117,80,-227,139,-387,147v-139,7,-442,-148,-578,-141v-163,9,-259,73,-387,160r0,-92v116,-80,226,-137,387,-146v137,-8,441,146,578,139","w":1706},"\u00a0":{"w":471}}});
